{
    "version": "0.5.0",
    "architecture": "WaveNet",
    "config": {
        "layers": [
            {
                "input_size": 1,
                "condition_size": 1,
                "head_size": 8,
                "channels": 16,
                "kernel_size": 3,
                "dilations": [
                    1,
                    2,
                    4,
                    8,
                    16,
                    32,
                    64,
                    128,
                    256,
                    512
                ],
                "activation": "Tanh",
                "gated": false,
                "head_bias": false
            },
            {
                "input_size": 16,
                "condition_size": 1,
                "head_size": 1,
                "channels": 8,
                "kernel_size": 3,
                "dilations": [
                    1,
                    2,
                    4,
                    8,
                    16,
                    32,
                    64,
                    128,
                    256,
                    512
                ],
                "activation": "Tanh",
                "gated": false,
                "head_bias": true
            }
        ],
        "head": null,
        "head_scale": 0.02
    },
    "weights": [
        -0.009018938057124615,
        0.6577152609825134,
        -0.7537147402763367,
        -0.9110152125358582,
        -0.3842300772666931,
        0.26247599720954895,
        -0.0006873547099530697,
        0.7707621455192566,
        -0.03233160078525543,
        0.21879322826862335,
        -0.0861959308385849,
        -0.092704176902771,
        -0.990268349647522,
        -0.7833040356636047,
        -0.29119959473609924,
        0.2726384699344635,
        0.16131733357906342,
        0.3165522515773773,
        -0.31933900713920593,
        -0.17610499262809753,
        -0.1745435744524002,
        0.30169177055358887,
        0.0756506398320198,
        0.3267326056957245,
        -0.19620035588741302,
        0.1253824234008789,
        0.35583630204200745,
        -0.31061673164367676,
        0.021961649879813194,
        0.18894238770008087,
        -0.24636340141296387,
        0.028933629393577576,
        -0.3071865141391754,
        0.11472628265619278,
        0.0019483707146719098,
        0.11804531514644623,
        -0.23268122971057892,
        0.01834637112915516,
        -0.15142041444778442,
        0.24288423359394073,
        0.13233014941215515,
        0.17368949949741364,
        -0.1460973620414734,
        -0.22773276269435883,
        -0.2995913326740265,
        0.10639598965644836,
        0.20139065384864807,
        0.3024364113807678,
        -0.23153255879878998,
        0.10424496233463287,
        0.3057408630847931,
        -0.040826257318258286,
        0.1648857146501541,
        0.2388891875743866,
        -0.08154144138097763,
        0.024648454040288925,
        0.24957312643527985,
        -0.2897942066192627,
        0.006926037836819887,
        0.14758354425430298,
        -0.10853525251150131,
        -0.047412507236003876,
        -0.33800947666168213,
        0.2996988296508789,
        0.22442378103733063,
        -0.21798719465732574,
        -0.07345369458198547,
        -0.08343677222728729,
        0.2876695394515991,
        0.19801418483257294,
        0.007289303466677666,
        -0.24632853269577026,
        -0.0014720628969371319,
        0.23552265763282776,
        -0.0759514644742012,
        0.06604320555925369,
        0.1469065397977829,
        -0.32164236903190613,
        -0.04486091062426567,
        -0.21714147925376892,
        0.0558503083884716,
        0.17556218802928925,
        0.2172730267047882,
        -0.2991887927055359,
        -0.08983564376831055,
        -0.1418173909187317,
        0.16616156697273254,
        -0.009332728572189808,
        0.18297477066516876,
        -0.28163132071495056,
        -0.012238329276442528,
        -0.056262288242578506,
        0.2704189717769623,
        0.10013799369335175,
        -0.02862105332314968,
        -0.2749267518520355,
        0.0009920044103637338,
        0.1534595638513565,
        -0.28623953461647034,
        -0.1380966454744339,
        0.2522414028644562,
        -0.0969046801328659,
        -0.12149714678525925,
        0.08283576369285583,
        -0.33354073762893677,
        -0.06061573326587677,
        0.017125481739640236,
        -0.30056488513946533,
        -0.06438975036144257,
        -0.1117277592420578,
        0.18818919360637665,
        0.13255669176578522,
        -0.13936041295528412,
        0.16928870975971222,
        0.2300386130809784,
        -0.02828601375222206,
        -0.06077086552977562,
        -0.1396210789680481,
        -0.07904016226530075,
        0.04792988672852516,
        0.19256429374217987,
        -0.08988755196332932,
        -0.047682903707027435,
        0.21653595566749573,
        -0.22743505239486694,
        -0.054838549345731735,
        0.11419510841369629,
        0.03303183987736702,
        -0.07028777152299881,
        -0.26879361271858215,
        -0.12571324408054352,
        0.0676199421286583,
        -0.008692922070622444,
        0.09152867645025253,
        0.0822497308254242,
        -0.1603585034608841,
        -0.06452056765556335,
        0.036808304488658905,
        0.1881147027015686,
        0.18374022841453552,
        0.1102195456624031,
        -0.05396801978349686,
        0.0595598965883255,
        0.01720595173537731,
        0.004028457682579756,
        -0.14821089804172516,
        0.13113412261009216,
        0.13874125480651855,
        -0.1707376390695572,
        -0.09012707322835922,
        0.009999941103160381,
        -0.21824322640895844,
        -0.00525685166940093,
        0.22820819914340973,
        -0.011573858559131622,
        -0.12207893282175064,
        0.2196086198091507,
        -0.01382339559495449,
        -0.080816850066185,
        -0.25182437896728516,
        -0.10520521551370621,
        0.17125017940998077,
        -0.19239045679569244,
        -0.07311224937438965,
        -0.20911160111427307,
        0.05982174724340439,
        -0.12038549035787582,
        0.23855309188365936,
        -0.1767539232969284,
        -0.059784069657325745,
        0.31720903515815735,
        -0.11034655570983887,
        0.07846184819936752,
        0.23529238998889923,
        -0.19851471483707428,
        0.15094316005706787,
        -0.19768185913562775,
        -0.003224411280825734,
        0.10331179946660995,
        0.06624151021242142,
        -0.00346605246886611,
        0.021045053377747536,
        -0.07925150543451309,
        0.09230498969554901,
        0.007077110931277275,
        0.24179847538471222,
        -0.08704402297735214,
        0.031957902014255524,
        -0.28244146704673767,
        0.1427467316389084,
        0.06426939368247986,
        0.28160005807876587,
        -0.14841246604919434,
        -0.048379454761743546,
        0.06922204792499542,
        -0.14872635900974274,
        -0.13464230298995972,
        0.2347479611635208,
        -0.14029444754123688,
        -0.055779796093702316,
        0.1919132024049759,
        0.03857532888650894,
        -0.1728132963180542,
        0.08128560334444046,
        -0.130173921585083,
        0.1680070459842682,
        -0.2595720589160919,
        0.2545892000198364,
        -0.22295916080474854,
        0.10736968368291855,
        0.03631602227687836,
        0.23845840990543365,
        -0.08872665464878082,
        -0.10828403383493423,
        -0.2636200785636902,
        0.12441382557153702,
        -0.039063483476638794,
        -0.33714941143989563,
        0.2307763695716858,
        -0.03594871237874031,
        -0.27761635184288025,
        0.25052133202552795,
        0.1281432807445526,
        0.2733679413795471,
        -0.23309573531150818,
        -0.003580383025109768,
        -0.2514851987361908,
        0.14959603548049927,
        0.07352501153945923,
        0.240864098072052,
        -0.10651838034391403,
        0.042289186269044876,
        -0.21569965779781342,
        0.2606840431690216,
        0.17502133548259735,
        0.17576265335083008,
        -0.032658763229846954,
        -0.1667119711637497,
        -0.29675424098968506,
        0.15371444821357727,
        0.12198160588741302,
        -0.1489257961511612,
        0.054864902049303055,
        0.06588103622198105,
        -0.1901628077030182,
        -0.03173701465129852,
        0.1810925006866455,
        -0.3832780122756958,
        0.11297082901000977,
        0.053746748715639114,
        -0.3376888632774353,
        0.12048375606536865,
        0.18413196504116058,
        0.24318286776542664,
        -0.21522781252861023,
        -0.1366250216960907,
        -0.25683122873306274,
        0.159813791513443,
        -0.026193909347057343,
        0.04281705990433693,
        -0.17735832929611206,
        0.029361873865127563,
        -0.06556732952594757,
        0.1966579556465149,
        0.09859394282102585,
        -0.18971823155879974,
        0.05440429225564003,
        0.09886831045150757,
        -0.01960001327097416,
        0.1348383128643036,
        -0.012618640437722206,
        0.08056633919477463,
        -0.22448308765888214,
        -0.024269361048936844,
        -0.13616438210010529,
        0.03410602733492851,
        0.24093535542488098,
        0.049473077058792114,
        -0.10383017361164093,
        -0.01074901595711708,
        -0.1079297885298729,
        0.018887244164943695,
        -0.04670705273747444,
        0.2594622075557709,
        -0.054587043821811676,
        0.07354575395584106,
        -0.16977696120738983,
        0.12980197370052338,
        0.017535213381052017,
        -0.13405683636665344,
        0.003362369490787387,
        0.10042300075292587,
        -0.09791049361228943,
        0.0856894850730896,
        0.019669564440846443,
        -0.2304094433784485,
        0.1922248899936676,
        -0.052601687610149384,
        -0.07616429775953293,
        0.03792925179004669,
        -0.02993125095963478,
        0.17346762120723724,
        -0.20793457329273224,
        -0.05943482741713524,
        0.09093213081359863,
        -0.18608710169792175,
        0.18434588611125946,
        0.05382893607020378,
        0.15202736854553223,
        -0.18887262046337128,
        -0.11530809104442596,
        -0.1245909258723259,
        0.20769919455051422,
        -0.050004493445158005,
        -0.045572444796562195,
        0.26488351821899414,
        -0.06547508388757706,
        -0.08856093883514404,
        0.23535478115081787,
        0.003453007433563471,
        0.10454025864601135,
        -0.16102084517478943,
        -0.055136971175670624,
        0.012243476696312428,
        0.24893930554389954,
        0.1280525028705597,
        0.1799367219209671,
        -0.14742833375930786,
        0.09484850615262985,
        -0.15136118233203888,
        0.05569314956665039,
        -0.13632428646087646,
        0.22138932347297668,
        -0.07929788529872894,
        -0.08973333239555359,
        -0.03469959273934364,
        0.2529548406600952,
        0.16286517679691315,
        0.05301675572991371,
        0.28049200773239136,
        -0.030645914375782013,
        -0.14784298837184906,
        0.28599610924720764,
        0.0864274874329567,
        -0.1831931322813034,
        0.30024534463882446,
        0.08392500877380371,
        -0.019282141700387,
        0.062041155993938446,
        0.023660294711589813,
        0.03926584869623184,
        -0.12789073586463928,
        0.007857195101678371,
        -0.0847199559211731,
        -0.03670693188905716,
        0.07625792920589447,
        0.07926620543003082,
        0.07477352023124695,
        -0.11636191606521606,
        -0.0928225964307785,
        -0.10232154279947281,
        -0.1596687138080597,
        -0.2439328134059906,
        0.11220362782478333,
        0.06673140823841095,
        0.011056984774768353,
        0.11479397863149643,
        -0.11237934231758118,
        0.026923123747110367,
        -0.026782186701893806,
        -0.02130870707333088,
        0.08790022134780884,
        -0.11503390967845917,
        -0.051983579993247986,
        -0.015309923328459263,
        -0.08116509020328522,
        0.1272359937429428,
        0.006123078055679798,
        0.09938278794288635,
        0.11986006051301956,
        0.24010507762432098,
        -0.03799665719270706,
        0.06521600484848022,
        0.014610818587243557,
        0.03390057757496834,
        0.14930851757526398,
        -0.03112160414457321,
        0.09115906804800034,
        -0.06960353255271912,
        -0.05900510400533676,
        0.012250043451786041,
        -0.050741806626319885,
        -0.20745821297168732,
        -0.08292082697153091,
        -0.11759669333696365,
        -0.025963686406612396,
        0.09088525921106339,
        -0.012583740055561066,
        0.05594071000814438,
        0.09360817819833755,
        0.09434159845113754,
        -0.05433835834264755,
        -0.032187312841415405,
        0.16378237307071686,
        0.128025621175766,
        -0.17893177270889282,
        0.10548991709947586,
        0.036279503256082535,
        0.011267805472016335,
        0.04534697160124779,
        -0.15358872711658478,
        0.04910906404256821,
        0.0937589779496193,
        -0.0586518831551075,
        -0.02957526035606861,
        -0.01372375525534153,
        0.027893472462892532,
        -0.10884325951337814,
        -0.0192341860383749,
        0.10816579312086105,
        0.016313374042510986,
        -0.055430591106414795,
        0.07535609602928162,
        -0.004682897590100765,
        0.06433787941932678,
        -0.17547370493412018,
        0.05587137117981911,
        -0.08334127813577652,
        -0.005135208833962679,
        -0.02759604901075363,
        -0.12206272035837173,
        -0.007368587423115969,
        0.18202953040599823,
        -0.00837248470634222,
        -0.1512260138988495,
        0.016246527433395386,
        -0.003181491047143936,
        -0.18064440786838531,
        0.14278702437877655,
        -0.1633208841085434,
        -0.2065010517835617,
        -0.06586452573537827,
        -0.04934213310480118,
        0.031599268317222595,
        -0.07659149169921875,
        0.16744808852672577,
        0.020683201029896736,
        -0.04948645085096359,
        -0.07861988246440887,
        -0.1355133056640625,
        0.16851943731307983,
        0.19772440195083618,
        0.14940492808818817,
        -0.006268621888011694,
        -0.21917708218097687,
        0.10728167742490768,
        0.07950761169195175,
        -0.05488203465938568,
        -0.12175607681274414,
        0.040296055376529694,
        -0.2590612769126892,
        -0.05868769437074661,
        0.11273997277021408,
        0.01585882529616356,
        0.056868959218263626,
        -0.0040226709097623825,
        -0.00012222029909025878,
        0.020063119009137154,
        0.011332507245242596,
        0.08066986501216888,
        0.07278981059789658,
        0.06340819597244263,
        -0.009940455667674541,
        0.0028493169229477644,
        0.14009132981300354,
        -0.019119877368211746,
        -0.11310651153326035,
        -0.0080831004306674,
        -0.18207353353500366,
        0.06976297497749329,
        -0.029717005789279938,
        -0.17637647688388824,
        -0.11604493111371994,
        0.15248490869998932,
        -0.13987697660923004,
        0.10126267373561859,
        0.16750071942806244,
        -0.043094806373119354,
        -0.0021536056883633137,
        0.036499541252851486,
        -0.14647096395492554,
        0.007519008591771126,
        0.13519613444805145,
        0.020251596346497536,
        0.10477346926927567,
        -0.1283462941646576,
        -0.11491704732179642,
        -0.2449929565191269,
        0.1874184012413025,
        0.15514478087425232,
        0.018506810069084167,
        0.017712365835905075,
        0.05043024569749832,
        -0.06200357899069786,
        0.2004757672548294,
        -0.10065343230962753,
        -0.10431715101003647,
        0.1417781412601471,
        -0.06123186647891998,
        -0.09910624474287033,
        0.05087114870548248,
        0.10633201152086258,
        0.10069309175014496,
        -0.1427266001701355,
        0.02759396843612194,
        -0.06982088088989258,
        -0.04091152921319008,
        0.03492558002471924,
        0.22516049444675446,
        -0.09756485372781754,
        0.03343712165951729,
        -0.18734651803970337,
        0.12675857543945312,
        -0.09461943060159683,
        0.03489946573972702,
        -0.16516408324241638,
        0.11904140561819077,
        -0.1784307360649109,
        0.0749143436551094,
        -0.08404270559549332,
        0.010163012892007828,
        0.22860485315322876,
        -0.13168951869010925,
        -0.26281270384788513,
        -0.02474648505449295,
        -0.022676628082990646,
        -0.18351970613002777,
        -0.010167589411139488,
        -0.06782204657793045,
        -0.12147556245326996,
        -0.001103871501982212,
        0.045441463589668274,
        0.14646410942077637,
        -0.19507694244384766,
        0.1372862160205841,
        0.08977483958005905,
        -0.017445746809244156,
        -0.11545512080192566,
        -0.0010064305970445275,
        0.10796881467103958,
        -0.015263428911566734,
        -0.18513283133506775,
        0.174819216132164,
        0.028909973800182343,
        -0.028277207165956497,
        0.013852528296411037,
        0.0896046981215477,
        -0.08782163262367249,
        0.12376867234706879,
        -0.12130788713693619,
        -0.09248562157154083,
        -0.10985542833805084,
        0.015445874072611332,
        -0.029742421582341194,
        -0.07124613225460052,
        0.01331910490989685,
        0.01740182749927044,
        -0.05331800878047943,
        0.19505558907985687,
        -0.01348798256367445,
        0.1293083131313324,
        -0.042881160974502563,
        -0.004187596961855888,
        -0.12925104796886444,
        0.09380373358726501,
        0.06874687969684601,
        -0.01798861101269722,
        -0.016314195469021797,
        0.011469841934740543,
        0.1798948496580124,
        0.08262539654970169,
        -0.16943487524986267,
        -0.10129182040691376,
        0.1560218632221222,
        -0.06456758826971054,
        -0.045778464525938034,
        0.1442953646183014,
        0.0072790468111634254,
        0.1537250578403473,
        -0.007055142428725958,
        0.07282561808824539,
        -0.1364385485649109,
        -0.08051759749650955,
        -0.01734171248972416,
        0.2135593593120575,
        0.06374891847372055,
        0.04963766038417816,
        -0.0018893121741712093,
        0.13398084044456482,
        -0.05073535442352295,
        -3.132571146124974e-05,
        -0.06010545417666435,
        -0.28132063150405884,
        0.2657410204410553,
        -0.061574097722768784,
        -0.23521876335144043,
        0.21784642338752747,
        -0.06832247972488403,
        0.1037566289305687,
        -0.15251857042312622,
        -0.021616574376821518,
        -0.26503127813339233,
        0.20649810135364532,
        -0.0596405528485775,
        0.2262217402458191,
        -0.00480699772015214,
        0.08065049350261688,
        -0.158934086561203,
        0.24927815794944763,
        0.009934598580002785,
        0.08625200390815735,
        -0.008212576620280743,
        0.034554000943899155,
        -0.313965380191803,
        0.07346999645233154,
        -0.08936040103435516,
        -0.024395471438765526,
        0.12148276716470718,
        -0.13624106347560883,
        -0.18657612800598145,
        0.22131134569644928,
        0.0348668172955513,
        -0.13184957206249237,
        0.14594675600528717,
        0.06110340729355812,
        -0.21154749393463135,
        0.06308823823928833,
        -0.1356879025697708,
        0.06867312639951706,
        -0.12969911098480225,
        -0.17371194064617157,
        0.14237050712108612,
        -0.002197461435571313,
        0.06852152943611145,
        -0.21739499270915985,
        0.22236306965351105,
        -0.13929717242717743,
        0.2398526817560196,
        -0.19638477265834808,
        -0.08489709347486496,
        0.2073928713798523,
        -0.14142003655433655,
        0.06030423566699028,
        0.022993529215455055,
        -0.20657920837402344,
        -0.010601567104458809,
        -0.09477803856134415,
        0.22904366254806519,
        -0.11463718861341476,
        0.13802951574325562,
        -0.02110021933913231,
        0.019808437675237656,
        -0.015034954063594341,
        -0.025403274223208427,
        -0.04688626155257225,
        0.2511478066444397,
        -0.08923083543777466,
        0.17200903594493866,
        -0.14873634278774261,
        0.21248462796211243,
        -0.19428449869155884,
        0.09279417991638184,
        -0.08773832768201828,
        -0.023490343242883682,
        0.15958882868289948,
        0.02089698053896427,
        -0.07374841719865799,
        0.11826042830944061,
        0.015585065819323063,
        -0.09278412908315659,
        0.25014257431030273,
        -0.1821434497833252,
        -0.08259154856204987,
        0.10336118936538696,
        -0.017538655549287796,
        0.16505815088748932,
        -0.17272506654262543,
        -0.01571870595216751,
        0.13765104115009308,
        0.20161479711532593,
        -0.2167634516954422,
        -0.14698487520217896,
        -0.07413938641548157,
        0.3638455271720886,
        0.06799884885549545,
        0.02977461740374565,
        -0.11858575791120529,
        -0.050398632884025574,
        0.2014227956533432,
        -0.20121751725673676,
        -0.010082806460559368,
        0.2147095501422882,
        -0.3608053922653198,
        -0.017079653218388557,
        -0.25393062829971313,
        0.20500686764717102,
        0.1005195900797844,
        0.30944037437438965,
        -0.2620067894458771,
        0.03872005268931389,
        -0.17840582132339478,
        0.15033189952373505,
        -0.04137817397713661,
        0.059722255915403366,
        -0.07462310045957565,
        -0.08418063074350357,
        -0.1371046006679535,
        0.26181674003601074,
        0.16594582796096802,
        0.27995091676712036,
        -0.10007959604263306,
        -0.042241379618644714,
        0.13377271592617035,
        -0.30694580078125,
        -0.028166497126221657,
        0.19619926810264587,
        -0.08844176679849625,
        -0.058989811688661575,
        0.2534390687942505,
        -0.2974960207939148,
        0.03348613902926445,
        0.2844317853450775,
        -0.2544930577278137,
        -0.05897187441587448,
        -0.31346896290779114,
        0.37538275122642517,
        0.14828944206237793,
        -0.331775426864624,
        0.0759252980351448,
        -0.20787174999713898,
        0.14593873918056488,
        -0.0198858380317688,
        0.21645444631576538,
        -0.30086416006088257,
        0.08986896276473999,
        0.22304502129554749,
        -0.1717948466539383,
        -0.05094556137919426,
        0.08939266204833984,
        -0.30446791648864746,
        -0.08580515533685684,
        -0.10812490433454514,
        0.3634900450706482,
        0.08066119253635406,
        0.18019290268421173,
        -0.08198000490665436,
        0.003769767703488469,
        0.012110594660043716,
        0.19835098087787628,
        -0.12619823217391968,
        0.13897605240345,
        -0.16244778037071228,
        -0.10307985544204712,
        0.02582176774740219,
        0.28809696435928345,
        -0.13579563796520233,
        0.06355876475572586,
        -0.12052065879106522,
        -0.10480853170156479,
        0.0715801939368248,
        -0.18045906722545624,
        -0.08551642298698425,
        0.17740200459957123,
        -0.186500683426857,
        0.11388114094734192,
        0.009627502411603928,
        -0.11880870163440704,
        -0.05886060371994972,
        0.2582286596298218,
        -0.3895346224308014,
        -0.10545209795236588,
        -0.04624417424201965,
        0.3005121648311615,
        -0.07719572633504868,
        -0.11096817255020142,
        -0.01612360216677189,
        0.022592922672629356,
        -0.20259247720241547,
        -0.0893305167555809,
        0.08701656758785248,
        -0.011171741411089897,
        -0.009800652042031288,
        0.1833435595035553,
        0.013866456225514412,
        0.03725443407893181,
        -0.21820063889026642,
        -0.05694391205906868,
        0.004833626560866833,
        0.0010112202726304531,
        -0.07034202665090561,
        0.6168613433837891,
        -0.36536550521850586,
        0.6584897041320801,
        -0.6558347344398499,
        -0.07305313646793365,
        0.8507440686225891,
        0.8359895348548889,
        -0.5714138150215149,
        0.11282091587781906,
        0.043889645487070084,
        -0.5473237633705139,
        -0.37791022658348083,
        0.14788086712360382,
        -0.616169810295105,
        0.3856119215488434,
        0.41471418738365173,
        -0.2711744010448456,
        -0.12151650339365005,
        0.11665027588605881,
        0.1519308239221573,
        0.6093146204948425,
        -0.020857317373156548,
        0.16752424836158752,
        0.10223306715488434,
        0.002678436227142811,
        0.133058562874794,
        0.17623235285282135,
        -0.062336038798093796,
        0.05769645795226097,
        0.14148250222206116,
        -0.02513839490711689,
        -0.23447969555854797,
        0.5635902285575867,
        -0.1114581823348999,
        -0.2354959398508072,
        0.3533746004104614,
        -0.11795152723789215,
        0.0483308881521225,
        -0.22597338259220123,
        -0.130789116024971,
        -0.1629229635000229,
        0.007620519958436489,
        -0.5087509155273438,
        0.030308878049254417,
        -0.10572651773691177,
        0.06669921427965164,
        0.6400085687637329,
        0.14369672536849976,
        0.0056977663189172745,
        0.08866199105978012,
        -0.0064796265214681625,
        0.11612316220998764,
        -0.29125943779945374,
        -0.19182518124580383,
        0.11699943989515305,
        -0.18324632942676544,
        0.012573981657624245,
        -0.14687378704547882,
        0.13747811317443848,
        -0.15006613731384277,
        0.14589843153953552,
        0.11808658391237259,
        0.08408655226230621,
        0.08087226748466492,
        0.10112087428569794,
        0.009686606004834175,
        -0.24875211715698242,
        -0.08921214193105698,
        -0.4803326725959778,
        -0.31388697028160095,
        -0.15478970110416412,
        -0.06910072267055511,
        -0.3840714693069458,
        -0.28797128796577454,
        -0.10737781971693039,
        0.2846340537071228,
        0.05989962816238403,
        0.196553573012352,
        -0.3152078688144684,
        -0.11412573605775833,
        -0.17106212675571442,
        -0.1119377613067627,
        -0.322542667388916,
        0.28369802236557007,
        -0.3312849998474121,
        -0.11977522820234299,
        -0.010923368856310844,
        -0.3076240122318268,
        -0.11255583167076111,
        0.0008756573079153895,
        -0.2213096022605896,
        0.41303759813308716,
        0.0003975988656748086,
        0.18677295744419098,
        -0.3345986306667328,
        0.056490715593099594,
        -0.1678377240896225,
        0.1319473683834076,
        0.11021631211042404,
        0.08027106523513794,
        0.2613055109977722,
        0.15463756024837494,
        0.2685374915599823,
        0.14544227719306946,
        0.14439994096755981,
        -0.04127863794565201,
        -0.05292029306292534,
        -0.03478682413697243,
        0.11165063083171844,
        -0.11117295175790787,
        0.09403988718986511,
        0.1305602341890335,
        -0.07648570090532303,
        0.17804478108882904,
        0.11781812459230423,
        0.07833707332611084,
        -0.4818504750728607,
        -0.31963595747947693,
        0.0600784495472908,
        0.10089234262704849,
        0.03778082877397537,
        -0.34355902671813965,
        -0.24974621832370758,
        0.2426181435585022,
        0.1210872009396553,
        -0.25870779156684875,
        0.07545365393161774,
        -0.15893274545669556,
        0.13849736750125885,
        0.2736254334449768,
        0.39538735151290894,
        -0.4064309597015381,
        -0.04483365640044212,
        0.2377522885799408,
        0.39394399523735046,
        0.27780288457870483,
        0.3003406822681427,
        -0.008027150295674801,
        0.3466998338699341,
        -0.38638728857040405,
        0.2575555443763733,
        -0.3325936794281006,
        0.01786038838326931,
        0.26602819561958313,
        -0.3308892250061035,
        0.2101324498653412,
        -0.2851307988166809,
        -0.47995123267173767,
        -0.39731475710868835,
        -0.3823713958263397,
        -0.06941433995962143,
        0.07847733795642853,
        -0.15895342826843262,
        -0.28583821654319763,
        0.2774794399738312,
        0.2402297705411911,
        0.1605130136013031,
        -0.3937249183654785,
        0.0057881963439285755,
        0.18822090327739716,
        -0.44866907596588135,
        0.15882255136966705,
        0.2955755889415741,
        -0.4674243628978729,
        -0.1288156658411026,
        -0.04148874431848526,
        0.30091798305511475,
        -0.036638468503952026,
        0.16716790199279785,
        0.3439885973930359,
        0.3703206777572632,
        0.03708451986312866,
        0.41906821727752686,
        0.00673762196674943,
        -0.32423335313796997,
        0.1204923689365387,
        0.1378648430109024,
        0.5240715146064758,
        -0.2811376452445984,
        -0.08511243015527725,
        -0.5265732407569885,
        -0.3829890489578247,
        0.13759131729602814,
        0.0734555721282959,
        0.12097978591918945,
        -0.2322162389755249,
        -0.11791826784610748,
        -0.0024364860728383064,
        0.011647640727460384,
        -0.14695492386817932,
        0.15691010653972626,
        0.47079455852508545,
        0.1097164899110794,
        -0.3116103708744049,
        0.012019684538245201,
        0.15994127094745636,
        -0.07823880016803741,
        -0.029341327026486397,
        -0.19393384456634521,
        -0.17032280564308167,
        -0.12013562768697739,
        -0.29880550503730774,
        -0.17513281106948853,
        -0.19923891127109528,
        -0.2878006100654602,
        0.29156526923179626,
        -0.1254408359527588,
        -0.39514777064323425,
        -0.16994400322437286,
        -0.10840499401092529,
        -0.008472795598208904,
        0.1377258598804474,
        0.08654101938009262,
        -0.25478094816207886,
        -0.1257323920726776,
        0.18009112775325775,
        0.12535373866558075,
        -0.08629624545574188,
        -0.17947536706924438,
        0.139784038066864,
        0.021402208134531975,
        -0.038082048296928406,
        -0.1693606972694397,
        -0.05110616236925125,
        -0.25009846687316895,
        -0.11280287057161331,
        -0.08551844209432602,
        0.06383013725280762,
        -0.09031536430120468,
        0.19432714581489563,
        0.2400401085615158,
        0.1723250448703766,
        -0.03567108139395714,
        -0.09041361510753632,
        0.06445842236280441,
        0.04593505710363388,
        -0.16051197052001953,
        -0.1137799546122551,
        -0.17332367599010468,
        0.18888531625270844,
        -0.3955611288547516,
        0.2866082191467285,
        0.09850899875164032,
        -0.5397202968597412,
        0.15064172446727753,
        -0.04715820401906967,
        0.4514046013355255,
        0.31861454248428345,
        0.05848885327577591,
        0.33918166160583496,
        0.3205430209636688,
        -0.12900690734386444,
        0.4930877685546875,
        -0.1437343806028366,
        -0.3440013527870178,
        0.22111915051937103,
        0.5100356936454773,
        0.2518994212150574,
        0.2818390727043152,
        0.0035286149941384792,
        -0.22386126220226288,
        0.3800599277019501,
        0.1419561356306076,
        0.19413790106773376,
        -0.07110726088285446,
        -0.19264820218086243,
        -0.10522586107254028,
        -0.34590011835098267,
        0.12221884727478027,
        0.14493848383426666,
        0.442618727684021,
        0.08870644867420197,
        0.11499901115894318,
        -0.16443388164043427,
        0.19449195265769958,
        -0.3510473668575287,
        -0.24829907715320587,
        -0.04504195228219032,
        0.08642303943634033,
        0.07088149338960648,
        -0.03472168743610382,
        -0.16426198184490204,
        0.042232900857925415,
        0.014821783639490604,
        0.005050755571573973,
        0.05688609182834625,
        0.21197715401649475,
        0.01250605657696724,
        -0.20159488916397095,
        -0.09766683727502823,
        -0.09329606592655182,
        0.40500497817993164,
        -0.25267690420150757,
        0.11538172513246536,
        -0.14505615830421448,
        -0.04510168731212616,
        0.05821317434310913,
        -0.21132312715053558,
        -0.00729112746194005,
        0.12013169378042221,
        -0.14549998939037323,
        -0.18128938972949982,
        0.28148365020751953,
        0.19237731397151947,
        -0.06009141355752945,
        -0.04140254855155945,
        0.025671469047665596,
        -0.2160821557044983,
        0.15324415266513824,
        0.09658066928386688,
        -0.03186218813061714,
        -0.293630450963974,
        0.5115751028060913,
        0.039198506623506546,
        -0.1961664855480194,
        -0.11992988735437393,
        0.15600477159023285,
        -0.20604786276817322,
        0.5438652634620667,
        -0.182700976729393,
        -0.21580691635608673,
        -0.3260177671909332,
        -0.18191389739513397,
        0.10924466699361801,
        -0.2798870801925659,
        0.08170358091592789,
        0.06424079835414886,
        -0.20993676781654358,
        0.03961026296019554,
        0.013032875955104828,
        -0.09902989119291306,
        0.30815553665161133,
        -0.1149132028222084,
        0.2755536437034607,
        -0.051802217960357666,
        -0.23706156015396118,
        -0.049978941679000854,
        0.05612082779407501,
        0.36997947096824646,
        -0.04998226463794708,
        -0.10250618308782578,
        0.02537003718316555,
        0.0010117597412317991,
        0.004447925370186567,
        0.23017533123493195,
        -0.32435768842697144,
        -0.1296008825302124,
        -0.13065724074840546,
        -0.022852309048175812,
        -0.20318572223186493,
        0.023716887459158897,
        -0.11681054532527924,
        -0.09475936740636826,
        -0.11079619824886322,
        0.2208549529314041,
        0.014202254824340343,
        0.13928379118442535,
        0.18333598971366882,
        0.07389325648546219,
        -0.023053700104355812,
        -0.1335335522890091,
        0.3921293616294861,
        0.38008105754852295,
        -0.004556541796773672,
        0.10817352682352066,
        -0.23358623683452606,
        0.23072956502437592,
        0.1489984691143036,
        0.22993578016757965,
        -0.10160795599222183,
        -0.17394541203975677,
        0.16657133400440216,
        -0.22668592631816864,
        -0.11752024292945862,
        0.0501851886510849,
        -0.06430032104253769,
        0.06261508911848068,
        0.14973172545433044,
        -0.0960027202963829,
        0.06584618985652924,
        -0.018988125026226044,
        0.028387928381562233,
        0.11401523649692535,
        -0.2828020453453064,
        -0.03513476252555847,
        -0.08725886791944504,
        0.012372471392154694,
        0.1377110481262207,
        0.4328824579715729,
        0.16919051110744476,
        0.08889809995889664,
        -0.016684073954820633,
        -0.2455095499753952,
        0.4525904357433319,
        0.18859393894672394,
        -0.38065019249916077,
        0.3798528015613556,
        0.20153717696666718,
        -0.2979039251804352,
        -0.2239837944507599,
        0.008062261156737804,
        0.44488075375556946,
        0.22007997334003448,
        -0.0783940926194191,
        -0.018776580691337585,
        -0.3037576973438263,
        -0.22205522656440735,
        0.5874677896499634,
        0.0918099656701088,
        -0.4604813754558563,
        0.7157073616981506,
        -0.16951844096183777,
        -0.08411640673875809,
        0.23635828495025635,
        -0.37000957131385803,
        -0.6434392333030701,
        1.011297583580017,
        0.37750524282455444,
        0.05684571713209152,
        -0.46517065167427063,
        0.3819425702095032,
        -0.032918550074100494,
        -0.4401385486125946,
        0.19662384688854218,
        0.02164510264992714,
        -0.3190520703792572,
        -0.2983357012271881,
        -0.32005324959754944,
        0.35935479402542114,
        -0.33508384227752686,
        0.05453534796833992,
        0.6061563491821289,
        0.2327653169631958,
        0.09948956221342087,
        -0.009842037223279476,
        -0.609218180179596,
        0.06427796930074692,
        0.047046005725860596,
        0.13474465906620026,
        -0.04714222252368927,
        -0.12517692148685455,
        0.06067153811454773,
        0.08430976420640945,
        -0.17815397679805756,
        -0.13115441799163818,
        -0.12761399149894714,
        -0.16194133460521698,
        -0.10337609797716141,
        0.01227385550737381,
        0.0192682147026062,
        -0.06803661584854126,
        0.0668284073472023,
        0.004750377964228392,
        -0.1658036857843399,
        -0.04592518135905266,
        0.12182149291038513,
        0.34860852360725403,
        -0.7036973834037781,
        0.1295032501220703,
        0.2313806414604187,
        -0.29208409786224365,
        0.017535563558340073,
        -0.03954219073057175,
        -0.3257712125778198,
        0.1683100014925003,
        0.08354778587818146,
        0.17596536874771118,
        0.12352801114320755,
        0.2183263599872589,
        0.13064056634902954,
        -0.10358774662017822,
        0.20878496766090393,
        -0.08290416747331619,
        -0.16995187103748322,
        0.1646215319633484,
        -0.15886326134204865,
        0.2030336707830429,
        -0.04020454362034798,
        0.04727085307240486,
        0.22299280762672424,
        -0.1893477439880371,
        0.138040229678154,
        -0.13128259778022766,
        -0.07897564023733139,
        0.07737766206264496,
        -0.06650444865226746,
        0.01699727587401867,
        0.11797026544809341,
        0.04554423689842224,
        -0.12019603699445724,
        0.08255930989980698,
        0.07282174378633499,
        -0.05605657398700714,
        0.04458976536989212,
        -0.16204674541950226,
        -0.13089148700237274,
        0.032154519110918045,
        -0.09180864691734314,
        0.25704309344291687,
        -0.18685589730739594,
        0.15241821110248566,
        0.05056903138756752,
        0.0284550953656435,
        0.17246471345424652,
        0.6845564246177673,
        -0.18768951296806335,
        0.27089765667915344,
        -0.025524074211716652,
        -0.1720365434885025,
        0.034936994314193726,
        0.6577911376953125,
        -0.315895140171051,
        0.23392002284526825,
        -0.12117396295070648,
        0.11054788529872894,
        0.029768500477075577,
        -0.15947651863098145,
        -0.1291961669921875,
        0.0809495747089386,
        0.009029082022607327,
        0.06191429868340492,
        0.007011923007667065,
        0.07267716526985168,
        -0.21693041920661926,
        -0.06510905921459198,
        0.14162322878837585,
        -0.11722175031900406,
        0.01941239833831787,
        0.023212993517518044,
        -0.15286293625831604,
        -0.2237834632396698,
        -0.19103863835334778,
        0.042354486882686615,
        0.3270566761493683,
        -0.07444088906049728,
        -0.016527187079191208,
        -0.02841581404209137,
        -0.04319049045443535,
        0.07157362252473831,
        0.02971542626619339,
        -0.12112683057785034,
        -0.04519326984882355,
        0.02985803596675396,
        0.1620764434337616,
        -0.04354335367679596,
        -0.013231774792075157,
        0.06783029437065125,
        -0.10294859856367111,
        -0.020249158143997192,
        0.14854879677295685,
        -0.059820495545864105,
        0.11950171738862991,
        0.36331382393836975,
        0.556364893913269,
        -0.5549100041389465,
        0.15277555584907532,
        -0.021534210070967674,
        -0.33601999282836914,
        0.0896596908569336,
        0.2669922709465027,
        0.20912215113639832,
        0.029856083914637566,
        -0.17325910925865173,
        0.16836011409759521,
        0.09816144406795502,
        0.14216147363185883,
        -0.06195235624909401,
        0.0431038998067379,
        -0.10431384295225143,
        -0.10032016038894653,
        0.006435788702219725,
        0.22197963297367096,
        -0.289237380027771,
        -0.06804109364748001,
        0.054499976336956024,
        0.3061821758747101,
        0.29014551639556885,
        0.028370438143610954,
        0.03489306569099426,
        -0.1561248004436493,
        0.2157634049654007,
        0.021949458867311478,
        -0.23903480172157288,
        -0.058429256081581116,
        0.1607697308063507,
        -0.0834808424115181,
        0.08307025581598282,
        0.02493157982826233,
        -0.20723946392536163,
        0.28872498869895935,
        0.045209869742393494,
        0.39852696657180786,
        0.007597356103360653,
        0.06896810978651047,
        -0.29874148964881897,
        0.06551244854927063,
        0.19888712465763092,
        0.10066088289022446,
        0.010300622321665287,
        -0.06801656633615494,
        -0.20043137669563293,
        -0.014392458833754063,
        0.10581150650978088,
        0.25593191385269165,
        -0.05597895383834839,
        -0.032411523163318634,
        -0.44649171829223633,
        -0.06583552062511444,
        0.15139935910701752,
        -0.21098332107067108,
        0.125065416097641,
        0.01148085854947567,
        -0.013439862988889217,
        0.10063332319259644,
        0.18490178883075714,
        -0.08009984344244003,
        0.08059508353471756,
        -0.059359513223171234,
        0.07269400358200073,
        -0.17489993572235107,
        -0.12940022349357605,
        -0.08612078428268433,
        -0.05358846113085747,
        -0.13149437308311462,
        -0.05023780092597008,
        -0.043906573206186295,
        0.20731964707374573,
        0.2108069509267807,
        0.11740033328533173,
        0.006982673425227404,
        -0.20113982260227203,
        0.06620035320520401,
        0.18409878015518188,
        -0.14988572895526886,
        -0.05802776291966438,
        -0.02202022634446621,
        0.017306173220276833,
        -0.06899413466453552,
        -0.1043989509344101,
        0.25410860776901245,
        -0.07065843790769577,
        -0.13575543463230133,
        -0.10372448712587357,
        0.08858577907085419,
        0.1581782102584839,
        0.1132790669798851,
        -0.047642190009355545,
        -0.10644061118364334,
        -0.2946743369102478,
        0.09611308574676514,
        0.3100068271160126,
        0.1596585363149643,
        0.11767739057540894,
        -0.16647200286388397,
        -0.08791323006153107,
        -0.0021644658409059048,
        0.14581803977489471,
        -0.014820653013885021,
        -0.0025827025528997183,
        0.14973948895931244,
        -0.2063794732093811,
        -0.012533498927950859,
        0.03349434211850166,
        -0.21037328243255615,
        -0.0285458005964756,
        0.0011690465034916997,
        -0.005285546183586121,
        -0.004840316250920296,
        -0.11262667924165726,
        0.006750523578375578,
        0.05016174912452698,
        -0.10785719752311707,
        0.16448871791362762,
        0.26712849736213684,
        0.023525208234786987,
        -0.3068943917751312,
        -0.39189380407333374,
        -0.26350703835487366,
        0.2809778153896332,
        0.08601177483797073,
        0.1568024456501007,
        0.1847788244485855,
        -0.04288886487483978,
        -0.14487840235233307,
        0.09716752916574478,
        0.02881166897714138,
        -0.015102995559573174,
        -0.31504449248313904,
        0.09933537244796753,
        0.14346396923065186,
        0.29875239729881287,
        -0.06389877945184708,
        -0.02584083192050457,
        -0.24319499731063843,
        -0.04424060136079788,
        0.23968395590782166,
        0.13936446607112885,
        -0.13870841264724731,
        -0.06808718293905258,
        -0.05025632306933403,
        0.1590435802936554,
        -0.06332898139953613,
        0.34768468141555786,
        -0.19262291491031647,
        -0.2889324426651001,
        0.046361614018678665,
        -0.06335686892271042,
        0.029702071100473404,
        0.19143275916576385,
        0.13962723314762115,
        -0.011845924891531467,
        0.11717315018177032,
        -0.02781367301940918,
        -0.16470098495483398,
        0.04476433992385864,
        0.05424991995096207,
        0.2040441334247589,
        -0.17629748582839966,
        -0.11454939097166061,
        -0.011793838813900948,
        -0.03047330677509308,
        0.17844372987747192,
        -0.19347433745861053,
        -0.04223475232720375,
        0.276705801486969,
        0.016403375193476677,
        -0.10872375220060349,
        -0.04090495780110359,
        -0.15621069073677063,
        0.04581090062856674,
        0.1591285616159439,
        -0.15338346362113953,
        0.15490193665027618,
        0.026127927005290985,
        -0.10666528344154358,
        -0.17243652045726776,
        -0.09179841727018356,
        0.19130711257457733,
        0.07721618562936783,
        -0.03351277858018875,
        0.0032047026325017214,
        -0.1879950761795044,
        -0.021773673593997955,
        0.29239198565483093,
        -0.09371713548898697,
        -0.21228696405887604,
        0.3757335841655731,
        -0.14615792036056519,
        -0.1902545690536499,
        0.22364601492881775,
        -0.030171647667884827,
        -0.21876035630702972,
        0.37000712752342224,
        0.1020655408501625,
        0.007777961436659098,
        -0.1774793267250061,
        0.03136470168828964,
        -0.12180382758378983,
        -0.22838103771209717,
        -0.05920809879899025,
        0.07856785506010056,
        -0.1052991971373558,
        -0.13414286077022552,
        -0.3196414113044739,
        0.22995273768901825,
        -0.11399564892053604,
        -0.03954311087727547,
        0.036073364317417145,
        0.09554318338632584,
        0.2104293555021286,
        -0.23088647425174713,
        -0.015897473320364952,
        -0.39251595735549927,
        0.10493706911802292,
        -0.19274863600730896,
        0.012358594685792923,
        0.29058557748794556,
        -0.3798189163208008,
        -0.05643678829073906,
        0.20149879157543182,
        -0.2044398933649063,
        -0.07336274534463882,
        0.06476715952157974,
        0.2917134761810303,
        0.10098117589950562,
        -0.2037334144115448,
        -0.20341677963733673,
        -0.002108629560098052,
        0.3810398578643799,
        0.20539914071559906,
        0.1258379966020584,
        -0.14877846837043762,
        -0.3953685164451599,
        0.009733883664011955,
        0.017384126782417297,
        0.10256221145391464,
        0.018765300512313843,
        -0.30604133009910583,
        -0.20639543235301971,
        -0.35285764932632446,
        0.055668145418167114,
        -0.14776957035064697,
        -0.010190540924668312,
        0.14127705991268158,
        -0.2499433308839798,
        0.09074614942073822,
        0.2244768738746643,
        -0.14846959710121155,
        -0.043123118579387665,
        0.2541866898536682,
        0.12227141857147217,
        0.22744877636432648,
        -0.35001426935195923,
        0.22611981630325317,
        -0.17749053239822388,
        -0.18688026070594788,
        0.14910991489887238,
        -0.13250593841075897,
        -0.12663379311561584,
        -0.14720678329467773,
        0.07543264329433441,
        0.07342153787612915,
        -0.21431444585323334,
        0.06081442907452583,
        0.0555085614323616,
        0.023378605023026466,
        0.11338594555854797,
        0.05846207216382027,
        0.03855334222316742,
        0.08766250312328339,
        -0.019222725182771683,
        0.12323913723230362,
        0.11143045127391815,
        0.0036327794659882784,
        -0.13704794645309448,
        0.047469258308410645,
        0.2722587585449219,
        0.22797223925590515,
        0.14284664392471313,
        0.017382485792040825,
        0.27639085054397583,
        -0.09034769982099533,
        0.11337894946336746,
        0.06074560433626175,
        0.18222162127494812,
        0.06746283173561096,
        -0.23880551755428314,
        0.15665946900844574,
        0.10789540410041809,
        -0.23691518604755402,
        -0.007357333786785603,
        -0.04555097967386246,
        -0.13977554440498352,
        -0.08179693669080734,
        0.08605509251356125,
        0.06732942909002304,
        -0.04397985711693764,
        -0.055575933307409286,
        0.18194355070590973,
        -0.04414001479744911,
        -0.23310212790966034,
        -0.11864607781171799,
        0.007864960469305515,
        0.021733874455094337,
        -0.10709970444440842,
        0.04534194990992546,
        0.03026438318192959,
        -0.04436160996556282,
        0.020690254867076874,
        -0.07938706874847412,
        0.21915802359580994,
        0.18506163358688354,
        -0.026792041957378387,
        0.06557170301675797,
        0.0319557711482048,
        -0.08193140476942062,
        0.20326410233974457,
        -0.10818344354629517,
        -0.2236514687538147,
        -0.1359277367591858,
        -0.17330390214920044,
        0.14636746048927307,
        -0.03063834272325039,
        -0.057740941643714905,
        -0.05853576958179474,
        -0.158469557762146,
        -0.09701952338218689,
        0.09944509714841843,
        0.04359535127878189,
        0.008629143238067627,
        -0.0572090819478035,
        -0.03367658704519272,
        -0.013927736319601536,
        -0.16334281861782074,
        0.08763454109430313,
        0.22549456357955933,
        0.036074038594961166,
        0.17721249163150787,
        -0.09919199347496033,
        -0.006363237276673317,
        0.17395393550395966,
        -0.038140904158353806,
        0.08857116848230362,
        0.1429322361946106,
        0.017601553350687027,
        -0.08641820400953293,
        0.1480410248041153,
        0.032374307513237,
        0.08578527718782425,
        -0.04135952517390251,
        0.11463102698326111,
        0.02131059020757675,
        -0.031281836330890656,
        -0.07660085707902908,
        -0.03813929483294487,
        -0.16760636866092682,
        0.0976218655705452,
        -0.10377294570207596,
        0.1533549427986145,
        -0.11024715006351471,
        0.051728662103414536,
        0.05769599974155426,
        0.04069298505783081,
        0.018346060067415237,
        0.028630439192056656,
        0.0943726897239685,
        0.1560213714838028,
        -0.24739006161689758,
        -0.07529868185520172,
        -0.05890214070677757,
        0.0071082827635109425,
        0.09047012776136398,
        0.018524516373872757,
        -0.04763371869921684,
        -0.06899392604827881,
        0.042505983263254166,
        0.27993589639663696,
        0.01585901901125908,
        0.283311665058136,
        0.04024086892604828,
        -0.20880693197250366,
        0.1937301605939865,
        0.045388393104076385,
        -0.03149130940437317,
        -0.09342852234840393,
        0.05436166003346443,
        0.08843658864498138,
        -0.13201957941055298,
        0.09239894896745682,
        0.03512733057141304,
        -0.028470246121287346,
        0.2529940605163574,
        0.19339323043823242,
        -0.10255677998065948,
        -0.04237183928489685,
        -0.17277425527572632,
        0.017645351588726044,
        -0.24249427020549774,
        -0.19820576906204224,
        0.0974494218826294,
        -0.21065528690814972,
        -0.02387204021215439,
        -0.15870855748653412,
        -0.032753828912973404,
        0.34550684690475464,
        -0.11943461745977402,
        0.027105258777737617,
        0.05742067098617554,
        -0.18085536360740662,
        0.09495553374290466,
        -0.017700212076306343,
        -0.1452130526304245,
        0.08530955016613007,
        0.1904522329568863,
        -0.07263878732919693,
        -0.026855070143938065,
        -0.09855203330516815,
        0.21877703070640564,
        0.0800328180193901,
        0.07299598306417465,
        -0.0656769648194313,
        -0.13877388834953308,
        -0.044987309724092484,
        0.207272008061409,
        0.38590431213378906,
        -0.28915178775787354,
        0.04591347649693489,
        -0.16309085488319397,
        -0.20962515473365784,
        0.3266237676143646,
        0.1400914192199707,
        -0.052103444933891296,
        0.06442931294441223,
        0.2633035480976105,
        0.12851427495479584,
        -0.2692393660545349,
        0.21597251296043396,
        -0.02328304387629032,
        -0.20130151510238647,
        0.07649175822734833,
        0.002213328843936324,
        -0.20426295697689056,
        -0.2563677132129669,
        -0.18093280494213104,
        0.05053628981113434,
        -0.04786878824234009,
        -0.0629594549536705,
        0.21230646967887878,
        -0.10442481935024261,
        0.1187155544757843,
        -0.09880753606557846,
        0.013320621103048325,
        -0.08497099578380585,
        -0.03351815044879913,
        0.1415255218744278,
        0.06455449759960175,
        -0.006869220640510321,
        0.15059977769851685,
        0.04567243531346321,
        -0.18299297988414764,
        -0.036511894315481186,
        -0.06189228594303131,
        -0.03199503570795059,
        -0.2013791799545288,
        -0.14713577926158905,
        0.07630500197410583,
        0.11895624548196793,
        0.035904694348573685,
        -0.39272984862327576,
        -0.061116792261600494,
        -0.14549700915813446,
        -0.039289332926273346,
        -0.01092735305428505,
        0.11638182401657104,
        -0.32381707429885864,
        -0.21355803310871124,
        0.14710476994514465,
        0.20185032486915588,
        0.1202380433678627,
        0.12850968539714813,
        -0.26595935225486755,
        0.0015519700245931745,
        -0.095770925283432,
        -0.07593315839767456,
        0.07951130717992783,
        -0.08234794437885284,
        -0.041794560849666595,
        0.19247949123382568,
        0.19511495530605316,
        -0.17165027558803558,
        0.03617583587765694,
        0.06087396666407585,
        0.2252476066350937,
        -0.13705211877822876,
        0.05409727245569229,
        0.20824219286441803,
        0.0059863547794520855,
        0.30044203996658325,
        -0.1707206666469574,
        0.20206491649150848,
        0.024973634630441666,
        0.12174616008996964,
        0.1344241052865982,
        0.14396758377552032,
        -0.015540458261966705,
        -0.1320667713880539,
        0.16259688138961792,
        -0.051261696964502335,
        0.1657986342906952,
        -0.018992537632584572,
        0.034112513065338135,
        -0.029695965349674225,
        -0.46934807300567627,
        0.31669384241104126,
        0.8833374977111816,
        -0.5717015266418457,
        0.12003404647111893,
        -0.7009247541427612,
        -0.28295791149139404,
        -0.3706461191177368,
        0.947280764579773,
        -0.8272695541381836,
        -0.7023300528526306,
        -0.9216131567955017,
        0.1801230013370514,
        -0.7877388596534729,
        0.5783538818359375,
        -0.6660147309303284,
        -0.17373842000961304,
        -0.13265658915042877,
        -0.07578417658805847,
        0.1389167457818985,
        0.08090166747570038,
        0.11527726799249649,
        -0.4257045090198517,
        -0.22252137959003448,
        -0.03599102050065994,
        -0.12600921094417572,
        0.06992080807685852,
        0.3155302107334137,
        0.17666469514369965,
        0.0460505373775959,
        -0.0014736648881807923,
        0.15683118999004364,
        0.0536809004843235,
        -0.10810818523168564,
        -0.18174780905246735,
        -0.11364641040563583,
        -0.18769194185733795,
        0.23927879333496094,
        0.02817937731742859,
        -0.24126119911670685,
        0.1543198525905609,
        -0.23780472576618195,
        0.16654162108898163,
        0.11280646175146103,
        0.09443194419145584,
        0.030631935223937035,
        0.08537399768829346,
        0.2344176322221756,
        -0.17415131628513336,
        -0.14871662855148315,
        0.12523344159126282,
        0.28736990690231323,
        -0.06953916698694229,
        0.037849705666303635,
        0.1751641184091568,
        0.03927656263113022,
        0.04360339418053627,
        0.17006844282150269,
        -0.35419145226478577,
        -0.07196929305791855,
        0.07938401401042938,
        0.19592100381851196,
        0.2217467576265335,
        0.021771932020783424,
        0.0618780255317688,
        0.2646295726299286,
        -0.5528009533882141,
        -0.26036855578422546,
        -0.07419628649950027,
        0.09659679234027863,
        0.17548568546772003,
        -0.16658441722393036,
        -0.017641443759202957,
        0.06176910176873207,
        0.29151901602745056,
        0.5687770247459412,
        0.07319270819425583,
        -0.1587156504392624,
        -0.1495053768157959,
        0.07492683827877045,
        0.2948291301727295,
        0.19198282063007355,
        -0.46093252301216125,
        -0.42479920387268066,
        0.18089157342910767,
        0.08874735981225967,
        0.053925782442092896,
        0.28644853830337524,
        0.32189375162124634,
        -0.1661769300699234,
        0.08341433107852936,
        0.3463360071182251,
        -0.27277275919914246,
        -0.21245518326759338,
        -0.46626734733581543,
        -0.1862105429172516,
        -0.3010311722755432,
        -0.14496895670890808,
        -0.020243387669324875,
        -0.08991856127977371,
        -0.017989924177527428,
        0.0892091616988182,
        -0.0062821367755532265,
        0.04255318269133568,
        0.18616150319576263,
        0.21342265605926514,
        -0.23918890953063965,
        -0.02111959271132946,
        -0.33278965950012207,
        -0.31461718678474426,
        0.09124944359064102,
        -0.05537159740924835,
        0.15901535749435425,
        -0.05956842750310898,
        0.23827391862869263,
        -0.11345326900482178,
        0.003816901706159115,
        0.27585548162460327,
        -0.27343785762786865,
        -0.42186716198921204,
        0.4195207357406616,
        -0.007177451159805059,
        -0.1429426521062851,
        0.33014124631881714,
        0.23181620240211487,
        0.20022112131118774,
        -0.003301025368273258,
        0.42397624254226685,
        0.10436210036277771,
        -0.17616060376167297,
        0.37630054354667664,
        0.02850964106619358,
        -0.2499159425497055,
        -0.052212558686733246,
        -0.3169386684894562,
        0.19171229004859924,
        -0.058881182223558426,
        0.28800466656684875,
        -0.46122974157333374,
        -0.02684207446873188,
        -0.19182460010051727,
        0.021924180909991264,
        0.45608142018318176,
        -0.0022270544432103634,
        0.02038157731294632,
        -0.0806708037853241,
        -0.20025303959846497,
        -0.18843716382980347,
        -0.29276296496391296,
        -0.3809383511543274,
        -0.20332832634449005,
        -0.2147785872220993,
        0.23479917645454407,
        0.06198044866323471,
        0.17854855954647064,
        -0.2152152955532074,
        0.013106614351272583,
        0.08173847943544388,
        0.06759600341320038,
        0.4779518246650696,
        -0.23388639092445374,
        0.1631258875131607,
        -0.039569053798913956,
        0.1885460466146469,
        0.1553443819284439,
        0.0287028681486845,
        0.3157974183559418,
        0.12407850474119186,
        -0.20946210622787476,
        -0.025298798456788063,
        0.14909589290618896,
        0.46066123247146606,
        -0.04756689816713333,
        0.03843076154589653,
        0.0980486273765564,
        -0.42287278175354004,
        -0.21221555769443512,
        -0.19440989196300507,
        -0.18194040656089783,
        0.17516550421714783,
        0.04955373331904411,
        -0.09440024942159653,
        -0.009813540615141392,
        -0.08429811149835587,
        0.19558271765708923,
        0.2557826340198517,
        -0.2848617434501648,
        0.016689980402588844,
        0.23641736805438995,
        -0.0950712338089943,
        0.12046242505311966,
        0.15629413723945618,
        0.15225452184677124,
        0.3789500892162323,
        -0.34119313955307007,
        -0.22847150266170502,
        -0.3142732083797455,
        -0.255873441696167,
        0.2237996906042099,
        0.22492775321006775,
        -0.4382188618183136,
        0.23278899490833282,
        0.4918704032897949,
        -0.16476069390773773,
        -0.023807961493730545,
        -0.14575068652629852,
        -0.03601311147212982,
        -0.15372054278850555,
        -0.06463760137557983,
        -0.23983636498451233,
        -0.388584703207016,
        0.157584547996521,
        -0.06395841389894485,
        -0.16887323558330536,
        -0.232206791639328,
        0.18549306690692902,
        -0.2814856171607971,
        0.06842165440320969,
        -0.055001869797706604,
        -0.16163653135299683,
        0.17544503509998322,
        -0.21488912403583527,
        -0.022072957828640938,
        0.044882193207740784,
        0.07360310852527618,
        -0.07107190042734146,
        -0.33425259590148926,
        0.3656831979751587,
        -0.1004054844379425,
        -0.039562005549669266,
        0.03530379384756088,
        -0.11848099529743195,
        0.2070615142583847,
        0.3787688910961151,
        0.0746428593993187,
        -0.04134053364396095,
        0.20475703477859497,
        0.10758421570062637,
        0.11399795860052109,
        0.06938593089580536,
        -0.11022832989692688,
        0.278399795293808,
        0.12923572957515717,
        -0.24948836863040924,
        -0.3528220057487488,
        0.10662234574556351,
        0.05769544467329979,
        0.00643002986907959,
        0.08536715060472488,
        0.059048205614089966,
        -0.3348168432712555,
        0.19850362837314606,
        -0.1728658676147461,
        0.09138523042201996,
        0.23898933827877045,
        0.05813140049576759,
        0.2229515165090561,
        -0.20996953547000885,
        -0.2856837511062622,
        -0.10722140967845917,
        -0.1057913526892662,
        0.040882501751184464,
        -0.25987306237220764,
        0.29182273149490356,
        -0.064019113779068,
        -0.35156241059303284,
        0.34877559542655945,
        0.013635926879942417,
        -0.3031570315361023,
        0.1642303764820099,
        -0.35526910424232483,
        -0.2619510591030121,
        -0.2558754086494446,
        0.029450315982103348,
        0.08474221080541611,
        -0.18069058656692505,
        -0.14262378215789795,
        -0.017471255734562874,
        0.18003736436367035,
        0.1641818732023239,
        -0.015977658331394196,
        -0.04238018020987511,
        0.014336807653307915,
        -0.20136980712413788,
        -0.03668655455112457,
        -0.32320407032966614,
        -0.1173131912946701,
        -0.07267056405544281,
        0.16983717679977417,
        -0.08925836533308029,
        -0.1812184751033783,
        -0.15413425862789154,
        -0.3350645899772644,
        -0.2569654881954193,
        -0.14173968136310577,
        -0.10295773297548294,
        0.09535297751426697,
        -0.0741136223077774,
        -0.147609144449234,
        -0.13504216074943542,
        0.08132991194725037,
        0.0014090290060266852,
        -0.145036980509758,
        0.021160529926419258,
        -0.05650749430060387,
        -0.18892918527126312,
        -0.07755323499441147,
        -0.03736264258623123,
        0.07576160132884979,
        0.02541935257613659,
        -0.021540019661188126,
        -0.17464517056941986,
        -0.10228417813777924,
        0.06440600007772446,
        0.12755349278450012,
        0.18399503827095032,
        0.06427764147520065,
        -0.08116921037435532,
        -0.38594934344291687,
        -0.25690343976020813,
        -0.028399882838129997,
        -0.18098540604114532,
        0.11030758172273636,
        -0.020342038944363594,
        -0.14103858172893524,
        -0.1629834920167923,
        0.13395652174949646,
        -0.140141561627388,
        0.011571906507015228,
        0.14716924726963043,
        0.21357111632823944,
        0.021894825622439384,
        -0.25401195883750916,
        0.25162217020988464,
        -0.06896130740642548,
        -0.1620825231075287,
        -0.3908170163631439,
        -0.12277448922395706,
        0.1917043924331665,
        -0.23829838633537292,
        0.07536984980106354,
        0.13982515037059784,
        0.08705630153417587,
        0.1256706714630127,
        0.1714850515127182,
        0.014037826098501682,
        -0.2870211601257324,
        0.02331380546092987,
        0.18407413363456726,
        -0.17856553196907043,
        -0.07449743896722794,
        -0.07355034351348877,
        0.021249860525131226,
        -0.23440639674663544,
        0.1300002485513687,
        -0.17278516292572021,
        0.2299121618270874,
        -0.05520275607705116,
        0.02309713140130043,
        -0.09029551595449448,
        0.17815729975700378,
        -0.15078504383563995,
        0.0699421688914299,
        0.17756184935569763,
        0.22063550353050232,
        0.010721131227910519,
        0.20709869265556335,
        0.061740219593048096,
        0.16081665456295013,
        -0.01917819306254387,
        -0.3650902509689331,
        0.04250587895512581,
        -0.059080176055431366,
        0.04307698458433151,
        0.03774108365178108,
        0.011101651936769485,
        -0.024662300944328308,
        0.00680417800322175,
        0.1641099750995636,
        0.2083544284105301,
        0.14582614600658417,
        0.06562338024377823,
        0.07399289309978485,
        0.01942603848874569,
        0.2001149207353592,
        -0.34673312306404114,
        0.029160410165786743,
        0.3087182343006134,
        -0.1506688892841339,
        -0.17768290638923645,
        0.24061796069145203,
        0.01706317439675331,
        0.032674964517354965,
        -0.09068315476179123,
        -0.18874579668045044,
        0.052902765572071075,
        -0.1220049038529396,
        -0.12366486340761185,
        0.16301214694976807,
        0.03014812245965004,
        0.17692674696445465,
        0.11028105020523071,
        0.06100804731249809,
        0.045767173171043396,
        -0.0473344512283802,
        -0.15602043271064758,
        0.28535982966423035,
        0.09930920600891113,
        0.029123583808541298,
        -0.11112900823354721,
        -0.07105449587106705,
        -0.14525184035301208,
        0.13843882083892822,
        -0.034412968903779984,
        -0.043380655348300934,
        0.05281336233019829,
        -0.030310770496726036,
        0.04437313601374626,
        -0.14633715152740479,
        -0.014747449196875095,
        0.1661723107099533,
        -0.13331252336502075,
        -0.045906536281108856,
        0.05073413997888565,
        -0.0972985103726387,
        -0.026929441839456558,
        -0.060143522918224335,
        -0.035240985453128815,
        0.0023300705943256617,
        -0.2358832210302353,
        -0.09687727689743042,
        0.13076992332935333,
        0.20763260126113892,
        -0.22419124841690063,
        0.19712387025356293,
        -0.1046643778681755,
        -0.04555123671889305,
        0.043967001140117645,
        0.12436710298061371,
        0.14714078605175018,
        -0.2067219763994217,
        0.19278645515441895,
        -0.1249399483203888,
        -0.09364086389541626,
        -0.07317859679460526,
        -0.1367386430501938,
        -0.0776461511850357,
        -0.1053660437464714,
        0.039380792528390884,
        0.15031155943870544,
        0.16818605363368988,
        -0.12777079641819,
        -0.16161797940731049,
        -0.1274048537015915,
        0.11999993026256561,
        0.11130077391862869,
        0.1036892682313919,
        -0.10075631737709045,
        0.1081293523311615,
        -0.1404195874929428,
        0.050010327249765396,
        -0.010272323153913021,
        0.06823226809501648,
        -0.007170078344643116,
        -0.022388428449630737,
        0.1918855756521225,
        -0.05438399687409401,
        0.0013483144575729966,
        0.18422004580497742,
        -0.010866936296224594,
        -0.027772245928645134,
        0.28223225474357605,
        -0.05006391927599907,
        0.09943559765815735,
        -0.060654912143945694,
        -0.0074616982601583,
        0.18416360020637512,
        -0.21350446343421936,
        -0.013326063752174377,
        0.11958108097314835,
        -0.07845644652843475,
        -0.2944757044315338,
        0.14313270151615143,
        -0.12293851375579834,
        0.09946022927761078,
        0.15637104213237762,
        -0.12338566780090332,
        0.0443989522755146,
        -0.01081503089517355,
        -0.08972746878862381,
        0.37625208497047424,
        -0.02633802220225334,
        0.04195272549986839,
        0.09356746077537537,
        -0.03761233016848564,
        0.09330272674560547,
        -0.025193169713020325,
        -0.10879427939653397,
        -0.27260273694992065,
        -0.04233725741505623,
        0.17827363312244415,
        0.0690724328160286,
        -0.2502118945121765,
        -0.029428480193018913,
        -0.1184055507183075,
        -0.020504547283053398,
        0.16868841648101807,
        0.16643846035003662,
        0.02678324282169342,
        -0.044032976031303406,
        -0.3022041916847229,
        -0.06506118178367615,
        0.024335399270057678,
        0.046548277139663696,
        0.40091946721076965,
        -0.15446524322032928,
        -0.17410489916801453,
        0.12583869695663452,
        0.08514297008514404,
        -0.20421411097049713,
        -0.05807932838797569,
        0.18246392905712128,
        0.05432800576090813,
        -0.21833819150924683,
        0.013618186116218567,
        0.2712341248989105,
        -0.03185243532061577,
        -0.06887516379356384,
        -0.04975365474820137,
        -0.12282232940196991,
        -0.203447163105011,
        -0.12151145190000534,
        -0.14194418489933014,
        0.07803695648908615,
        -0.08318979293107986,
        0.0062364269979298115,
        -0.08824895322322845,
        0.14102834463119507,
        -0.5493289828300476,
        0.036056388169527054,
        0.15946952998638153,
        -0.5026755928993225,
        -0.0876777246594429,
        -0.29832887649536133,
        -0.08432310074567795,
        -0.08219107240438461,
        -0.21551355719566345,
        0.09968581795692444,
        0.06356769055128098,
        -0.3969031274318695,
        0.09614995121955872,
        -0.029162034392356873,
        0.10106518864631653,
        -0.15803126990795135,
        -0.05687021464109421,
        -0.06291709095239639,
        0.0835018903017044,
        -0.003403727663680911,
        -0.03715597093105316,
        0.07893911004066467,
        0.1415468454360962,
        0.6835176944732666,
        -0.20764996111392975,
        0.2610653042793274,
        0.28161996603012085,
        -0.18084979057312012,
        -0.07240189611911774,
        0.02035524696111679,
        -0.032167959958314896,
        -0.007612895220518112,
        -0.13678604364395142,
        0.03427157551050186,
        -0.08941467851400375,
        0.2128690779209137,
        -0.14204183220863342,
        0.07985672354698181,
        -0.409332811832428,
        -0.046348705887794495,
        -0.30927541851997375,
        0.09335776418447495,
        -0.15666700899600983,
        -0.11172743886709213,
        0.1801547259092331,
        -0.10133799910545349,
        -0.05631965398788452,
        -0.08032909035682678,
        -0.08868188410997391,
        -0.08338640630245209,
        -0.1494836062192917,
        -0.14248093962669373,
        0.0027048462070524693,
        -0.11728528887033463,
        0.04420114681124687,
        -0.053203679621219635,
        0.05179669335484505,
        -0.09133636206388474,
        -0.020939163863658905,
        0.1652902364730835,
        0.15769480168819427,
        -0.04205260053277016,
        -0.08243738114833832,
        -0.0802072212100029,
        0.07477092742919922,
        -0.1735842227935791,
        0.16966512799263,
        -0.09463955461978912,
        -0.14029629528522491,
        -0.07039683312177658,
        -0.07764381170272827,
        -0.04454531520605087,
        -0.06098771095275879,
        -0.18026994168758392,
        -0.015655357390642166,
        -0.1559133678674698,
        0.0533515065908432,
        -0.01153048500418663,
        -0.16267363727092743,
        -0.09798415750265121,
        -0.1278976947069168,
        -0.0863957479596138,
        0.04935764521360397,
        -0.12902264297008514,
        -0.15630963444709778,
        -0.16437163949012756,
        0.011906695552170277,
        0.24656060338020325,
        -0.12013701349496841,
        -0.0811481699347496,
        -0.4899055063724518,
        0.16167041659355164,
        -0.22589492797851562,
        0.3111519515514374,
        0.17638356983661652,
        -0.12372990697622299,
        -0.146683007478714,
        0.02433370240032673,
        -0.009399314410984516,
        -0.04780132323503494,
        -0.10672629624605179,
        0.02520833909511566,
        -0.18304336071014404,
        -0.17649391293525696,
        -0.17882083356380463,
        -0.0935012549161911,
        0.17930643260478973,
        -0.05190159007906914,
        0.06467965990304947,
        -0.10553205758333206,
        -0.18826675415039062,
        -0.23090772330760956,
        0.1672130823135376,
        0.1929662525653839,
        0.152060404419899,
        -0.27413177490234375,
        -0.23329225182533264,
        -0.468559205532074,
        0.1413692682981491,
        0.048377782106399536,
        0.006618743762373924,
        -0.3617958724498749,
        -0.1546652764081955,
        -0.038766615092754364,
        0.28755244612693787,
        -0.1348363161087036,
        -0.010458771139383316,
        0.2773880362510681,
        0.1955314427614212,
        -0.22183780372142792,
        -0.17036163806915283,
        0.0936654731631279,
        -0.1402708739042282,
        0.06984680891036987,
        -0.10940766334533691,
        -0.6005503535270691,
        0.4326449930667877,
        0.04114096984267235,
        0.19384342432022095,
        -0.09484592080116272,
        -0.09746551513671875,
        0.03650711104273796,
        -0.07359381020069122,
        -0.1526363641023636,
        0.10560709983110428,
        0.06491806358098984,
        -0.1988012045621872,
        -0.1269274204969406,
        -0.0796210989356041,
        -0.0462278388440609,
        -0.18896007537841797,
        -0.15974348783493042,
        -0.2125956118106842,
        0.060542888939380646,
        0.12958016991615295,
        0.06709705293178558,
        -0.1336633861064911,
        -0.06825514137744904,
        0.10004974156618118,
        -0.035897910594940186,
        0.10853444039821625,
        0.06569404900074005,
        0.12346436828374863,
        -0.04497068002820015,
        -6.687295535812154e-05,
        0.02019082009792328,
        -0.2639367878437042,
        0.3696694076061249,
        0.18787148594856262,
        -0.045699141919612885,
        -0.19447200000286102,
        -0.11247014254331589,
        0.03451469540596008,
        -0.03586680814623833,
        -0.14717143774032593,
        0.12992514669895172,
        0.12588456273078918,
        0.10329115390777588,
        -0.004191460553556681,
        0.41568976640701294,
        0.25983428955078125,
        -0.017677253112196922,
        -0.22121645510196686,
        -0.18047314882278442,
        0.05597514286637306,
        -0.18242785334587097,
        0.156370148062706,
        0.17919160425662994,
        -0.09591034054756165,
        -0.03474812209606171,
        0.12314955145120621,
        -0.19634276628494263,
        0.19962982833385468,
        -0.23829668760299683,
        0.031220171600580215,
        0.050023216754198074,
        -0.06013905256986618,
        -0.035552192479372025,
        -0.17247216403484344,
        -0.13955672085285187,
        -0.2698826789855957,
        0.11055446416139603,
        -0.09513629227876663,
        0.13845162093639374,
        -0.3546724021434784,
        -0.0879921242594719,
        -0.1261793076992035,
        0.01940597966313362,
        0.15217001736164093,
        0.21077029407024384,
        -0.14246098697185516,
        0.008674091659486294,
        -0.15848425030708313,
        0.0005572040681727231,
        -0.06258801370859146,
        -0.0065162293612957,
        0.39997249841690063,
        -0.22690297663211823,
        -0.07195286452770233,
        0.056967221200466156,
        -0.03398055210709572,
        -0.1844581514596939,
        -0.08252504467964172,
        0.031241733580827713,
        0.028897518292069435,
        -0.025709129869937897,
        -0.20270033180713654,
        0.2383434772491455,
        0.03949568793177605,
        -0.025857118889689445,
        0.17411692440509796,
        0.009372792206704617,
        -0.07301026582717896,
        0.06888873130083084,
        -0.011426924727857113,
        0.04893883317708969,
        0.1792902946472168,
        0.09276406466960907,
        0.03699010983109474,
        0.1477571427822113,
        -0.23155224323272705,
        0.07245150208473206,
        0.07878618687391281,
        -0.3175901770591736,
        0.10419460386037827,
        -0.08656174689531326,
        0.13990788161754608,
        0.01655077375471592,
        0.20070236921310425,
        0.10597310215234756,
        -0.17634513974189758,
        -0.055806901305913925,
        0.3122759163379669,
        0.043684884905815125,
        0.10806906968355179,
        -0.02328762225806713,
        -0.020308032631874084,
        -0.1253226399421692,
        0.09996476769447327,
        0.13966307044029236,
        0.2742939889431,
        0.01849452219903469,
        0.113906130194664,
        0.06468629837036133,
        -0.5493252873420715,
        0.19375556707382202,
        0.18655255436897278,
        -0.12578065693378448,
        -0.10216061025857925,
        0.23772916197776794,
        -0.20948097109794617,
        -0.14623962342739105,
        -0.18386158347129822,
        0.23004403710365295,
        -0.05644986778497696,
        -0.15269197523593903,
        -0.21773898601531982,
        0.017681948840618134,
        0.20073151588439941,
        0.289987176656723,
        -0.28960058093070984,
        -0.0049826293252408504,
        0.022652894258499146,
        -0.1590096652507782,
        0.15446148812770844,
        -0.029420699924230576,
        0.07293703407049179,
        -0.06966713070869446,
        0.20834864675998688,
        0.03323323652148247,
        0.06516727805137634,
        0.11716108024120331,
        0.1516484171152115,
        -0.04395328462123871,
        -0.11180990934371948,
        0.08343661576509476,
        0.013913413509726524,
        0.23986640572547913,
        0.10321151465177536,
        0.09507792443037033,
        -0.16343827545642853,
        -0.06122996658086777,
        -0.05067862197756767,
        0.14734454452991486,
        -0.32072383165359497,
        -0.24538274109363556,
        -0.14836135506629944,
        -0.00980977900326252,
        -0.02036929503083229,
        -0.18969273567199707,
        -0.2722059488296509,
        0.10582779347896576,
        -0.087440624833107,
        0.014691907912492752,
        0.12316977232694626,
        -0.00983011070638895,
        -0.2995310127735138,
        -0.08860161155462265,
        -0.06993675976991653,
        -0.06136263534426689,
        -0.1346181035041809,
        -0.21929338574409485,
        0.25499090552330017,
        -0.07697167247533798,
        -0.2501605153083801,
        -0.12963639199733734,
        -0.021777324378490448,
        -0.152488574385643,
        -0.17394447326660156,
        0.1460053026676178,
        -0.7416494488716125,
        -0.18851728737354279,
        0.08891860395669937,
        -0.1834786832332611,
        0.24045951664447784,
        -0.10556213557720184,
        -0.15860657393932343,
        -0.07219761610031128,
        -0.16040754318237305,
        0.06934737414121628,
        -0.03610515221953392,
        -0.048409413546323776,
        -0.015389791689813137,
        -0.04297242686152458,
        -0.08812064677476883,
        -0.08269447833299637,
        -0.21993407607078552,
        0.03626926615834236,
        0.02840324677526951,
        -0.03887210786342621,
        -0.006160934455692768,
        0.15263879299163818,
        -0.22043664753437042,
        -0.33347707986831665,
        0.13949079811573029,
        0.1109166070818901,
        0.015620711259543896,
        0.1259772777557373,
        0.2538928985595703,
        0.10822153091430664,
        0.07583186775445938,
        0.05120442062616348,
        0.02384337969124317,
        0.12730072438716888,
        -0.11859527975320816,
        0.06715647131204605,
        0.2535315752029419,
        0.06774190068244934,
        -0.17021489143371582,
        0.10375892370939255,
        -0.3262806534767151,
        -0.11103201657533646,
        -0.11800943315029144,
        -0.00028730183839797974,
        -0.046180013567209244,
        -0.028626449406147003,
        -0.2589717209339142,
        0.30095258355140686,
        -0.39448168873786926,
        0.049956806004047394,
        0.191496804356575,
        0.012435708194971085,
        -0.18540866672992706,
        -0.10519862920045853,
        -0.3002130687236786,
        0.15295344591140747,
        -0.26054927706718445,
        -0.012548107653856277,
        0.09294923394918442,
        -0.13289524614810944,
        0.040121108293533325,
        -0.07386752963066101,
        0.1001230999827385,
        -0.061732083559036255,
        -0.0654376745223999,
        -0.022701941430568695,
        0.2206774204969406,
        -0.07797746360301971,
        -0.0018960371380671859,
        0.014271662570536137,
        -0.06572593003511429,
        -0.04999209940433502,
        -0.007129854056984186,
        0.26301878690719604,
        0.15328730642795563,
        -0.07743478566408157,
        -0.061279427260160446,
        -0.05724359303712845,
        -0.10627121478319168,
        0.15543200075626373,
        -0.04914511740207672,
        0.05070287361741066,
        -0.09556300938129425,
        0.09650415927171707,
        0.068097323179245,
        -0.1401979625225067,
        -0.17065612971782684,
        0.08938349783420563,
        -0.03150259330868721,
        -0.12430258840322495,
        -0.06576179713010788,
        0.16641280055046082,
        -0.4029262065887451,
        0.3831360936164856,
        0.24851660430431366,
        -0.0359257236123085,
        -0.14810465276241302,
        0.08066918700933456,
        0.18189620971679688,
        -0.11883200705051422,
        0.10192528367042542,
        -0.3286173343658447,
        0.003207101719453931,
        0.07998858392238617,
        -0.48340579867362976,
        0.016507085412740707,
        -0.1089661493897438,
        0.10214188694953918,
        -0.03476632013916969,
        -0.15102513134479523,
        -0.017736434936523438,
        0.12350171059370041,
        -0.048806753009557724,
        0.1542196422815323,
        -0.05440140515565872,
        -0.060343872755765915,
        0.0778743103146553,
        0.037384260445833206,
        0.023677363991737366,
        0.02832644432783127,
        0.07632197439670563,
        0.04976031184196472,
        0.13600130379199982,
        -0.011062035337090492,
        0.0308575090020895,
        -0.19565968215465546,
        0.056944552809000015,
        -0.138181671500206,
        -0.11395851522684097,
        -0.09812666475772858,
        -0.05045750364661217,
        -0.01940426230430603,
        -0.05863828957080841,
        0.20920857787132263,
        -0.016103588044643402,
        -0.02838982455432415,
        -0.13532857596874237,
        -0.25372469425201416,
        0.22558163106441498,
        -0.16833393275737762,
        -0.021731168031692505,
        -0.005554394796490669,
        0.023283395916223526,
        0.10215756297111511,
        0.07610875368118286,
        0.30797499418258667,
        -0.1815456598997116,
        -0.011324471794068813,
        0.15464505553245544,
        -0.2973628044128418,
        0.3167896866798401,
        0.13118138909339905,
        -0.0596446730196476,
        0.4146008789539337,
        0.03794999048113823,
        0.29344552755355835,
        -0.036620963364839554,
        -0.08933326601982117,
        0.0802626758813858,
        -0.029135853052139282,
        0.11393904685974121,
        0.2678150534629822,
        -0.07461812347173691,
        0.0941297858953476,
        -0.1004510447382927,
        0.05090639367699623,
        -0.05058049038052559,
        -0.036294493824243546,
        -0.0399705208837986,
        -0.13072916865348816,
        -0.12495564669370651,
        -0.2066236287355423,
        0.03717024624347687,
        -0.4695342779159546,
        0.4854317605495453,
        0.025613417848944664,
        -0.31592291593551636,
        0.2252969592809677,
        -0.08485781401395798,
        -0.18531017005443573,
        0.10382957756519318,
        -0.02441965602338314,
        0.28903844952583313,
        -0.08330626040697098,
        -0.09340053051710129,
        -0.012954819947481155,
        0.07838454842567444,
        0.13780082762241364,
        0.20956087112426758,
        0.05823882296681404,
        0.0011303581995889544,
        -0.1044236272573471,
        0.12938661873340607,
        0.13254360854625702,
        -0.029314056038856506,
        -0.05606267601251602,
        0.17112573981285095,
        0.18682408332824707,
        0.015574038028717041,
        -0.02574610337615013,
        -0.02626246027648449,
        0.06777196377515793,
        -0.013846340589225292,
        -0.03884046524763107,
        -0.19181564450263977,
        -0.6037335991859436,
        0.7318247556686401,
        0.3598301410675049,
        -0.3097890615463257,
        -0.06883233040571213,
        -0.18806344270706177,
        -0.13595551252365112,
        0.4551178812980652,
        -0.5131722688674927,
        0.7788925170898438,
        0.5516668558120728,
        -0.15715590119361877,
        -0.43852800130844116,
        0.14330635964870453,
        -0.5456361770629883,
        0.14720265567302704,
        -0.3734596073627472,
        -0.36836710572242737,
        -0.33941081166267395,
        0.20640592277050018,
        0.07659805566072464,
        0.08836610615253448,
        0.19836732745170593,
        0.15974603593349457,
        0.3930506408214569,
        0.18599674105644226,
        0.4011906683444977,
        -0.40874066948890686,
        -0.0017545687733218074,
        -0.13060501217842102,
        -0.03094511292874813,
        0.09983417391777039,
        0.013085356913506985,
        0.12215544283390045,
        0.12068742513656616,
        0.2830106019973755,
        -0.0021802603732794523,
        -0.035430483520030975,
        -0.26184356212615967,
        -0.1829836368560791,
        0.19358935952186584,
        -0.18285737931728363,
        -0.2695256769657135,
        0.189137265086174,
        0.22303374111652374,
        0.3769381642341614,
        -0.03863973543047905,
        -0.01188541017472744,
        -0.26762276887893677,
        0.2832459807395935,
        -0.09057016670703888,
        0.15291200578212738,
        -0.11556992679834366,
        -0.16294457018375397,
        -0.42676395177841187,
        -0.17925989627838135,
        -0.07477078586816788,
        -0.14891691505908966,
        0.3694225549697876,
        0.15617536008358002,
        -0.145069420337677,
        0.013089007697999477,
        -0.16818909347057343,
        0.3355042040348053,
        -0.10378605872392654,
        0.14058838784694672,
        -0.21855978667736053,
        -0.08728820830583572,
        0.20114275813102722,
        -0.1420077234506607,
        0.3428156077861786,
        0.14277267456054688,
        0.029157238081097603,
        0.24427738785743713,
        0.22891640663146973,
        0.17217613756656647,
        0.1985987424850464,
        0.17808693647384644,
        -0.11951670050621033,
        0.08967752009630203,
        0.0379355326294899,
        0.24968074262142181,
        0.013762694783508778,
        -0.2559793293476105,
        0.09410219639539719,
        0.06989574432373047,
        -0.19918718934059143,
        0.13097235560417175,
        -0.2776739299297333,
        0.056261807680130005,
        -0.1111777201294899,
        -0.1279873102903366,
        -0.10524772107601166,
        0.002312646247446537,
        -0.20856347680091858,
        -0.1505395472049713,
        0.19945308566093445,
        0.0421440526843071,
        0.06918864697217941,
        -0.20852510631084442,
        -0.10940472781658173,
        0.2667126953601837,
        0.046383120119571686,
        -0.20156586170196533,
        -0.41821375489234924,
        -0.038112103939056396,
        -0.017141859978437424,
        0.023979172110557556,
        0.11299128830432892,
        0.2271043360233307,
        0.07523170113563538,
        0.1453489512205124,
        0.18492330610752106,
        -0.2818893492221832,
        -0.07403616607189178,
        0.19796915352344513,
        -0.2652413547039032,
        0.0452253520488739,
        -0.1992468535900116,
        -0.17444686591625214,
        0.2774013578891754,
        -0.0075671616941690445,
        -0.03796689957380295,
        0.006121067795902491,
        0.08819181472063065,
        0.20568403601646423,
        0.3230629861354828,
        0.05788248032331467,
        0.146700918674469,
        -0.3291974663734436,
        0.08486565202474594,
        0.22525304555892944,
        -0.17908090353012085,
        -0.29484060406684875,
        -0.3830254077911377,
        0.30345413088798523,
        0.08913778513669968,
        -0.03809331730008125,
        0.20326365530490875,
        -0.2552539110183716,
        0.001935240114107728,
        0.05132078379392624,
        -0.17933139204978943,
        -0.3433475196361542,
        0.38342830538749695,
        -0.3238222599029541,
        0.14940962195396423,
        0.37348753213882446,
        0.025375179946422577,
        -0.46114659309387207,
        -0.13046374917030334,
        -0.10493618249893188,
        0.2940717041492462,
        -0.23768839240074158,
        0.31928497552871704,
        -0.4013407528400421,
        -0.1564069390296936,
        0.030971424654126167,
        0.005886873695999384,
        0.4805012345314026,
        0.041399627923965454,
        -0.10714919120073318,
        0.18965701758861542,
        -0.020186791196465492,
        0.11152656376361847,
        -0.09496399015188217,
        0.004164377227425575,
        -0.05579807236790657,
        -0.17402462661266327,
        0.14149732887744904,
        -0.49623990058898926,
        -0.05030728504061699,
        -0.011778756976127625,
        0.2123282551765442,
        -0.0012054796097800136,
        0.20831908285617828,
        -0.2487100213766098,
        -0.28312042355537415,
        -0.33267703652381897,
        0.4884178340435028,
        -0.4204951822757721,
        0.018331851810216904,
        -0.080759696662426,
        0.26636573672294617,
        0.26830506324768066,
        -0.5364259481430054,
        0.12061357498168945,
        -0.07285159081220627,
        -0.3596855103969574,
        -0.003246953943744302,
        0.39810457825660706,
        0.48553013801574707,
        -0.4863416850566864,
        0.2607705295085907,
        -0.02876995876431465,
        0.03947358950972557,
        -0.07026985287666321,
        0.6129493117332458,
        0.27034205198287964,
        -0.07449964433908463,
        -0.07895722985267639,
        -0.25475940108299255,
        0.345124751329422,
        -0.23437531292438507,
        -0.06194651499390602,
        -0.0015972877154126763,
        0.0795179232954979,
        -0.4630105495452881,
        -0.3584452271461487,
        -0.03681346774101257,
        -0.07314366102218628,
        0.1039077490568161,
        0.11293259263038635,
        -0.24417607486248016,
        -0.09086916595697403,
        0.038545917719602585,
        0.012838488444685936,
        0.04888327047228813,
        0.3754023015499115,
        -0.04842618480324745,
        0.056187283247709274,
        0.25905781984329224,
        -0.20420484244823456,
        -0.37115028500556946,
        0.11494637280702591,
        -0.13525108993053436,
        -0.1817881464958191,
        0.0902487263083458,
        -0.03085360676050186,
        0.13447995483875275,
        -0.32887789607048035,
        -0.14747029542922974,
        0.13616427779197693,
        0.16396170854568481,
        -0.22533908486366272,
        0.11570592224597931,
        0.09700588136911392,
        -0.27688053250312805,
        0.05122177302837372,
        0.05503186956048012,
        0.0005291177076287568,
        -0.11216825991868973,
        0.01287807896733284,
        -0.19921055436134338,
        0.04395744577050209,
        -0.0286395400762558,
        -0.2725013196468353,
        0.16574715077877045,
        -0.08941183239221573,
        0.13220646977424622,
        0.009622147306799889,
        -0.11708544194698334,
        -0.018245210871100426,
        0.09615718573331833,
        -0.1718987375497818,
        -0.22709329426288605,
        -0.2852279543876648,
        -0.3858579993247986,
        -0.2869873344898224,
        -0.1424550712108612,
        0.06893133372068405,
        -0.29194068908691406,
        -0.8254655003547668,
        0.09338805824518204,
        0.2519359588623047,
        0.1921885907649994,
        0.3493480384349823,
        -0.376664400100708,
        -0.12985411286354065,
        -0.09003237634897232,
        0.009888430126011372,
        -0.10971260070800781,
        -0.03131486847996712,
        0.1503431648015976,
        0.09538182616233826,
        -0.07634096592664719,
        0.1658138483762741,
        0.21567432582378387,
        0.058042559772729874,
        -0.19964733719825745,
        -0.25104549527168274,
        0.02614712342619896,
        0.1362285166978836,
        0.05738379433751106,
        -0.03815971687436104,
        0.02787286601960659,
        0.020157549530267715,
        0.08341234922409058,
        -0.08088408410549164,
        0.09968347102403641,
        -0.24896296858787537,
        -0.0227336622774601,
        -0.19297471642494202,
        0.3032987117767334,
        0.11145232617855072,
        -0.1167275607585907,
        0.02025509811937809,
        -0.028271831572055817,
        0.0017475992208346725,
        0.06346964091062546,
        -0.28519073128700256,
        -0.05512551590800285,
        0.02068304643034935,
        -0.12728753685951233,
        0.1243247464299202,
        0.27561071515083313,
        -0.07642126828432083,
        -0.08806082606315613,
        -0.20837880671024323,
        0.06688569486141205,
        0.1303519606590271,
        0.09201502054929733,
        -0.09836585819721222,
        -0.20376518368721008,
        -0.11250746250152588,
        0.014558782801032066,
        -0.06589539349079132,
        -0.1332484781742096,
        -0.10022798925638199,
        0.07099609822034836,
        -0.03754027187824249,
        0.09061134606599808,
        -0.2553024888038635,
        -0.07882346957921982,
        0.07548541575670242,
        -0.2647688388824463,
        0.08982150256633759,
        -0.030165236443281174,
        -0.1507667601108551,
        -0.05810468643903732,
        -0.1712489277124405,
        -0.06269387155771255,
        0.007336008828133345,
        0.13625915348529816,
        -0.020878324285149574,
        0.1589697152376175,
        0.2626810371875763,
        -0.07133758813142776,
        -0.016760393977165222,
        -0.0033640824258327484,
        0.22155216336250305,
        -0.02017652988433838,
        -0.10991741716861725,
        0.024509428068995476,
        0.10311011970043182,
        0.4769829213619232,
        0.0751320943236351,
        0.11822564899921417,
        0.11155709624290466,
        0.12150239199399948,
        -0.01177589874714613,
        -0.2928067147731781,
        0.014950163662433624,
        -0.1040213480591774,
        0.083516925573349,
        -0.0518890917301178,
        -0.0973735973238945,
        -0.2924807667732239,
        0.07721887528896332,
        0.13146984577178955,
        0.21615628898143768,
        0.01273143757134676,
        0.02220643311738968,
        0.11573514342308044,
        0.17001645267009735,
        0.09038949012756348,
        0.14144547283649445,
        -0.07595271617174149,
        0.1962701827287674,
        -0.10895882546901703,
        -0.22507791221141815,
        -0.02231609635055065,
        0.13240666687488556,
        0.11260681599378586,
        -0.10756058245897293,
        0.24207836389541626,
        -0.21349912881851196,
        0.07942614704370499,
        0.039850544184446335,
        0.17319925129413605,
        0.08942080289125443,
        -0.0083057451993227,
        0.01248818077147007,
        0.008581718429923058,
        0.09098649024963379,
        0.10339516401290894,
        -0.10835831612348557,
        0.3941521942615509,
        -0.017461303621530533,
        -0.12194084376096725,
        -0.04338395595550537,
        -0.0022353539243340492,
        0.0706973671913147,
        0.5916534662246704,
        0.06559044122695923,
        0.06987586617469788,
        -0.07766317576169968,
        0.05008138343691826,
        -0.18767563998699188,
        -0.35781702399253845,
        -0.06638426333665848,
        0.16947241127490997,
        0.29790347814559937,
        -0.10296132415533066,
        -0.037708260118961334,
        -0.37439048290252686,
